12
12
-0.46893616161525364
0.31378332972851397
0.28048141427641593
0.488468183188238
0.06024294679261407
-0.19596831202141438
0.1837217320958545
0.11267696521174758
-0.1226842302307283
0.1277415056614554
0.2050832545242968
-0.02920605363397777
-0.2644318256926034
0.40715471654872504
-0.328005586995064
-0.23754336595055692
-0.2933937176839917
0.28303064597483335
0.39287427552586546
0.2891722359829019
-0.4139698870247669
-0.41147775444282614
-0.42400423459182823
-0.3038723194730709
0.49958101631087726
-0.032387107493273004
0.4874941917642186
-0.4499743114602525
0.18074134535936306
-0.4282632278242739
-0.25766076144849787
0.07430989976471919
0.19820983138463066
0.291840657573271
-0.41698775384347386
-0.15200217421756734
0.0287445109645484
-0.026348943213552627
0.16590745557160497
0.0264088079782579
0.16940707507337258
-0.03803386544267659
-0.08700836133789426
0.4652720478875599
-0.32835971137629927
-0.16541441700653522
0.4525106196952503
0.4653466129886651
-0.2727852927508221
0.4899699382848517
-0.06092539871367777
-0.3566262983561976
-0.01647663439120858
0.19441312962962395
-0.3421014456760159
0.09123740038871037
0.3681980867729492
0.3505623998937743
0.016827769636958007
0.012598154807735738
-0.0904580892879961
-0.31902211928501256
0.3949435754781254
-0.05775619979013696
-0.19417110460840567
-0.23479490117685578
0.029341707403403163
0.4677045393028307
0.15174212467043124
0.01743829199357885
0.434065764524057
-0.13740882904990726
-0.36516825559480404
0.2689320688118032
0.17007083372752213
0.15718623863454517
0.15442408570518348
-0.2883791465228634
0.33271381373517056
0.2720149000234668
-0.3876806469325572
0.25063497544803076
-0.055147675178731335
-0.4932809005078612
-0.20453656892606767
0.15062201592347177
-0.08125380670554405
-0.2460645419119657
0.26125575246480404
-0.22809149119433328
-0.08380299275440405
-0.07079571580808669
0.12550152779786639
0.34091755774392146
0.3299354960477253
0.13170290359714865
0.04781723011818489
-0.44110094391278043
-0.45258568128915944
-0.18583645522106773
0.1722289374470313
-0.39664303847773313
-0.23816498932464344
-0.34622821680300825
0.48834508663215515
0.028994400573742387
-0.33856544559608714
0.4876938166860896
-0.08816161212085778
-0.48594043213090077
0.02709907509338923
-0.15680262726399363
-0.04269401732918018
-0.3256069784910915
0.13713402712049308
0.12453139327073598
-0.14746794234899796
0.3252415962998239
0.3350662312314029
-0.28554028602733705
-0.027245649869534525
-0.11852071782827132
0.3564346907411644
0.05760464829973804
-0.330279873168389
-0.4796497781886823
0.3094160600973513
-0.4430882274498144
-0.32560010133165174
-0.4642698204720513
-0.03738834335650345
0.43427483860578053
-0.2008049316341413
-0.08613248939723962
-0.22830761376279723
0.47204710482504203
-0.3871004204056806
-0.20958650021246797
-0.3641556853722833
-0.11008692853514052
-0.08470598537056459
-0.3496041709652474
-0.1047184908520612
-0.3791678129213637
0.48801008487984054
0.11514252910151014
-0.3362841331745795
0.3465451272055255
-0.48028129331312186
-0.0690800750031365
-0.2830567844282534
-0.05792875079835397
-0.2590699925705875
0.33609781356506435
0.3097749496035902
0.22758639502227185
0.20950914886355435
0.03442235903089744
-0.4893736757887521
-0.1637552173732437
0.15300890623352364
0.42911139945875215
-0.4445438445486369
0.3440812005591233
-0.185919706741575
-0.0948835162480132
-0.4176634827559568
0.12526651793812718
0.4508121973791115
