12
10
-0.273849301613007
0.09684602185084305
0.025790605062771373
0.3835817428019119
0.42445856972559654
0.32846245231268384
0.07839198319605462
0.33680422886503353
0.3554689306971541
0.15288489645857617
1.0
0.30243350299901794
0.45582348390200905
0.36059728651123807
-0.0836157753742328
-0.4136405000641184
-0.16368213216568503
-0.4861185803105219
-0.3062952578938221
0.41039637144954805
-0.40371008876219777
1.0
0.112410998066865
-0.39851051440693913
0.2261130278313509
0.39142606296667276
0.456166800970971
0.4487311680077242
-0.4837112544347816
-0.3497493774673108
-0.07057646844532449
-0.31540617441159263
1.0
0.475792278227987
0.25123449047725094
-0.029334049607535655
-0.19214041629661952
-0.23225402001665338
0.08346079817662898
0.28825340032783264
-0.024678719439885387
-0.41158117606343564
0.26858853997450405
1.0
0.16994442316040118
-0.1760619994322808
0.2288956079805722
0.35068781743356453
0.19410334546498414
-0.33907597672257045
0.13808686412681181
-0.4820695014521826
0.4460516518249204
0.07833035778103682
1.0
-0.04038610757042926
-0.3552636465797368
0.12040869356303696
0.0284141016855853
0.3318038614799323
0.24596337587102426
-0.12648940256655783
-0.4712939616891885
0.40419925890084957
-0.35220800140794245
1.0
-0.506212574718756
-0.15047979244488202
0.27868183786326944
0.2843098693357687
0.06762755189928077
-0.05996854895472478
0.007799121967326946
0.4217912988622105
0.28112482940766165
-0.11524193953011694
1.0
-0.21960157085986978
0.47274186592593653
-0.4964469372905272
0.26562567931998243
0.31673384831638235
-0.20204395118806454
0.32579584861250876
0.09630956731421136
-0.4578250939939957
0.29861799079812407
1.0
-0.48587439275938743
0.4578963778545095
-0.18475132363946054
0.4869789442676002
0.2760962887459822
-0.4230211848177989
-0.4096513885303549
0.11015048403080685
0.31308872062165644
0.44031778173002983
1.0
0.0215407620207244
-7.308975216070764E-4
-0.08585042212316367
-0.2747427354596596
0.44383621280754
-0.2528451832829161
0.024921811886781154
-0.20281049160618075
-0.3137328306606219
-0.3678661669415327
1.0
-0.025567817336471083
-0.07090857160402982
0.4241513174198022
0.43802809640883295
0.08906571830545652
-0.10540814661485633
-0.19845825674501164
0.42511135375248316
-0.3916650302123718
-0.22532921431043695
1.0
0.14512721130943249
-0.1188045041968591
0.2445767713098212
-0.41463420101410925
-0.48729978025428294
0.38308316465748077
-0.11417477677808736
0.5041216044891829
-0.13220154106188037
-0.42423242355626706
1.0
-0.5722410057190834
-0.19123346619562404
0.31317048950224885
0.23691754256336078
-0.5356344587260591
-0.043869772582136014
-0.47247082502375676
-0.5271239246084477
-0.05344123279094496
-0.2793601341896284
1.0
