12
25
-0.49342201207795533
0.06001468593618576
0.19867313827685368
-0.4575226897706467
0.3371914405882961
-0.30873726471511415
0.13655093087671605
-0.21246293136566918
0.18003876875989347
0.2412312187865022
0.16462934972719273
0.09001349577926956
-0.3295339213678321
-0.30425837240775344
0.2713583243090785
0.018704592428192075
0.3546067758492565
-0.3609110411127713
-0.5978533136405989
0.0024300866814824917
0.09359822014009032
-0.40983447347182833
-0.4708756506551965
-0.27494671517005187
-0.22353234428209537
1.0
0.0661652465034106
0.03538828322978127
-0.5814577248098572
0.24475461931134548
-0.1425616226770729
-0.4471052015160954
-0.463161127816272
-0.408078578719454
0.3323859569423532
-0.407391351536991
-0.039739292409169936
-0.43036623336194385
-0.3113588710457287
-0.06963611457189937
0.07613829422796185
0.43226982597580604
0.11903666383428654
-0.1383181077124125
-0.46146611533891063
-0.26624741121243917
0.18513461529355058
-0.45606775958698376
0.20258802904804998
-0.38374008216431277
-0.053637775468635206
1.0
-0.043331258353817445
0.529968550107092
-0.3688802862045825
0.2553098642582532
0.1829499508901627
0.20632179511650944
-0.37327105964994906
0.06429873044486324
0.2043001910446772
-0.1391416468745411
0.29480783347907663
0.21773059257087585
-0.2644295289472467
0.3688833345082363
0.028545384432006344
-0.10453145660378797
-0.3746686660919981
-0.06760910912226047
0.039335737611918754
0.027108741231937725
0.024016211150913402
0.4190163361279361
-0.27615788824281834
0.1497775001262548
-0.27886244853335024
1.0
0.24560565526343361
0.20444940929072755
0.3263293685769108
0.19262658988582507
0.25922454420266805
-0.06273224413059632
0.35703207194133896
0.27684714107866865
0.41106649251671645
0.37634561733667415
0.07251068038232951
0.13707991115304213
-0.41219846807286664
0.36106104536956163
-0.4829651632192787
-0.12692349588418889
-0.4648756316592241
0.03429188856929971
-0.6254203725122411
0.36695249980048483
0.19888645492911597
-0.37296956869242914
0.2230481953656787
0.3001256664364408
0.25709285170477775
1.0
0.01817639759638886
-0.2467880271987918
0.1366243147698498
-0.465208979453263
0.43186502995079945
0.041392358508236485
0.3173547175018568
-0.4057048672981091
0.38320593562221594
-0.49004795011221325
-0.48552327334885054
-0.5005157744116189
-0.4432752119749126
0.10401355308611909
-0.463133217933647
-0.027960686443656502
-0.06533126546796969
-0.3161066132396261
-0.42559232738730995
0.3862024657197918
-0.46893432612915886
-0.08279870838187174
-0.463896470009386
-0.07989562557064082
-0.13890807595855562
1.0
-0.11925931911874699
0.4744314280717316
0.5699319613933914
0.12532128543213406
-0.22292135824195675
-0.37077885354416823
-0.06731799242655503
0.10603340958045882
-0.10035960077204185
-0.1711500015702477
0.3117792542914622
0.020569657762299007
0.20566523091496186
-0.13038887920175388
-0.18272085742548747
-0.21202283084186385
0.2706194374433025
0.4015879667782909
-0.3117847822139432
0.31686710492024617
-0.1465390711725128
-0.2262936057289475
0.07131841100438993
0.2571957525190826
0.48076140056706024
1.0
-0.2741750804834472
-0.37382887772881906
-0.36203848760042373
0.3650292505270405
-0.3018805775598774
-0.26145842911151745
0.38847053738470655
-0.33071217605814257
-0.4553968130789081
0.18528041004046134
-0.4852032253045822
-0.2767804874892743
0.020596033563824227
-0.41651599800673755
0.00853072249192692
-0.14907635736867247
0.0794913307761149
-0.31753578499415913
0.08833988432884202
-0.43352324560393074
-0.29184709434327166
0.08659647407012618
0.44508863318761044
-0.3322032923147989
-0.328338353725409
1.0
0.5584269832165737
0.003169550232828255
0.5767067283716276
0.31073064720124277
0.05950438973123943
0.12735048662943127
0.14075232742466523
0.11458286055834938
0.06083337398795723
0.14321240648896505
0.4281574192049365
0.0325087784065642
0.24713557130292668
0.13208230142230556
0.33350862792968433
0.27474320904083666
-0.09338763195145991
-0.30688861003361567
-0.09369692363574257
-0.40546556325900984
-0.22458018454649942
-0.221578239317312
-0.03228875223577825
0.48451752413256144
-0.22817561819354704
1.0
-0.48160083758511735
0.1897883196102151
-0.06954988356021748
-0.1376885365273853
0.11740508462300826
-0.16609828423888323
0.18611373994995675
-0.26289439595167313
-0.012434903324080943
-0.5534862214947289
0.37453485110606727
0.18674307187390737
-0.42687992892657567
0.35416217485747126
0.07801820014235976
-0.179975023477369
0.19560578567400683
0.20760969582436847
0.21785519029616177
0.5242466990051865
0.2644693290717315
-0.29947578787794804
-0.12948584186889864
0.3418508308929793
0.06973451577694521
1.0
0.1072327055129294
0.4060421068664474
0.39024814967034066
-0.41490212027486284
-0.48445653406827915
0.3054766962043482
0.2140061455094807
0.2888152452202802
-0.32302789786280617
-0.10763304291337257
-0.18456799234945903
0.37428896740478984
-0.12161654942948495
0.21864235578965394
0.05949589226868093
-0.024654888700899092
0.3078235187321846
-0.07210810800188819
0.17948087285875683
0.46711015252913535
-0.3600343812652137
0.45284633725605994
-0.008650790202676952
0.3201942432495085
0.09566391291145304
1.0
-0.06366858138741276
-0.1820485860107454
0.3571847135022796
0.15619720594159994
0.10476081696780039
0.2856373212937257
-0.0367037439344183
-0.4425766761189975
-0.024409146621324335
0.03631510662194819
-0.04302805887918202
0.1080207155371196
-0.26419900311405675
-0.38196516418010074
-0.5004771804909471
-0.438222037817459
-0.1861282833258882
0.22671750565118817
0.22505957553798242
-0.3814869636591883
-0.500766180320703
-0.09946629083877455
-0.4319605404320433
0.2997520420133375
-0.05120644982358389
1.0
-0.09090303733865937
0.4266286428536606
0.36129832549805535
-0.2646360796996276
0.4190642069566346
0.06345932093305409
0.3033767849215391
-0.4726993397431945
0.3998586011026489
0.5221059516843022
0.4736324886842069
0.4549247339118045
0.47032342190046783
-0.24419172216082488
-0.3687664344470109
-0.2590584944181635
0.30182098740187113
-0.12796931271441234
0.025390125580414393
-0.3785635103738225
-0.33492425319218255
-0.3652160571207027
-0.14762227777029527
0.49806898030979707
-0.01256436876224313
1.0
-0.3399808884532324
-0.43761149784082387
-0.15641104158958538
0.11736616249506891
-0.0026642412676182916
0.23357910659542133
0.1883159823608369
-0.2966266638383288
0.09757009722608155
-0.3109118295885205
-0.12163706175923941
-0.217814309471206
-0.5510207834176176
0.21376815412791944
-0.23871424496091642
0.042199819806150195
0.04487222767153874
-0.004512577835403349
-0.192509199488516
0.15988579774031925
0.013946313929127253
-0.10957712717656223
-0.04464294458334201
-0.1902897375626006
-0.020555505120515218
1.0
