12
12
1.0
1.0
-0.07759752657955
-0.3605884287943146
-0.17153365997013956
0.10797198988186744
-0.25452600596317515
-0.17083741642686592
-0.4880695953149653
0.2740982474013033
0.0858370713205429
0.14683151514981402
-0.3396409298414132
0.012714339495191506
0.18156558662664227
-0.45931390240502573
0.14855239848893706
0.4176951317020965
-0.34206736697712076
0.2956102109676205
-0.41998900587938826
0.1841380953742984
-0.0745325052666516
0.46927410806838604
0.29274019720234984
-0.07514714206053891
-0.3952039156043785
-0.0663119517039097
-0.2942886000799222
-0.029856834578942015
-0.447760091192514
-0.2906235934031579
-0.2454749026590126
0.3989060517953731
-0.006433235149928331
-0.05904391012870896
0.06559853912298302
0.39411045999725386
-0.27869810477902635
0.00987821847033619
0.23957903752535184
-0.3974939845375389
-0.07336265060787989
-0.4015885325062265
-0.15525329403744464
-0.5179976701719737
0.254904501001674
-0.16355515562582307
0.4952463972154341
-0.11217118393031451
-0.5218493687019383
-0.2926464937478868
0.33643777984334744
0.4309426366997884
0.29006446689692117
-0.18728555135759425
-0.2570284739944291
-0.18947076608070143
-0.018381080550119007
-0.3129101412212099
0.22321553480081174
-0.05284906310195877
-0.007898688683757437
0.45418500520731636
-0.09972753260275066
-0.4313686507499713
0.2630460073477007
-0.4565573675386517
0.44008512355293994
0.23211276788328286
0.5199094083617688
0.3366873537081572
0.2428797132659564
-0.40172375134883526
-0.42171616998344574
0.20069367287845113
-0.23524525602390545
0.20678210878295578
0.14221826868964096
-0.4078415105994766
-0.47558656736728183
-0.18306377657476763
0.2577194685526636
0.370591085093982
0.09964105784610407
-0.25828743554523176
0.21228420147578736
-0.3136916518489156
-0.49883852826492975
0.2314689283128979
0.13283602091860489
0.15126604550892167
0.2469398470251628
0.21758157851206356
0.34769298086131684
-0.29648322802834004
-0.020404192261380193
-0.2750613684772233
-0.38601087913327564
-0.15283089055725793
-0.08133126958521582
-0.4475879044988918
-0.38398504463786703
-0.4756262169994106
-0.1975289877371458
-0.0653791903846584
-0.4232921566225743
-0.1915703998462162
0.2837322730772247
-0.35851425973896356
0.06799237357269942
-0.19956693535735856
0.3395275541677588
0.03360168878281365
-0.482221186738314
-0.4785187664868405
-0.34301928384234753
-0.14286074402796098
-0.34416028730864634
-0.12506737390800274
-0.032382438753507096
-0.4701505311493415
-0.508511676293635
-0.34033636678431983
0.02946289762721878
0.16045935289862515
-0.3378622684818599
0.0132133585136825
0.17909106312861672
-0.20022997841558063
0.2827395479868113
-0.10448483456074562
0.20350625376575532
0.38771881764709976
-0.10872428862228445
-0.47056464910905
-0.389016455472799
0.07735165913667989
0.35173765722090866
0.045727841414693854
0.25788310091542677
0.4968215125783967
0.14271367959883488
0.3331181807127142
-0.26550827838494767
-0.37537795134703367
-0.4252122911728611
0.07883206928781776
-0.4720664764113771
0.05263470093087939
-0.50586625516931
-0.41645953715028367
0.30280080891790767
0.29244807508199394
0.16720559576564306
0.23249438095060523
-0.3498535778981971
-0.4596431760258441
